16 100
perro -0.0005361347 0.00023653972 0.0051037217 0.009010204 -0.009300907 -0.0071166237 0.006459766 0.00897494 -0.005017835 -0.0037645313 0.007380689 -0.001535304 -0.0045371545 0.006557137 -0.0048596133 -0.0018161859 0.0028810482 0.000996458 -0.00828697 -0.0094526615 0.007311506 0.00506877 0.006761132 0.00076054933 0.0063538207 -0.0034043202 -0.0009473925 0.005769798 -0.0075234286 -0.0039338805 -0.0075083342 -0.0009297087 0.009537396 -0.0073205554 -0.0023359996 -0.0019379735 0.008076436 -0.005931594 4.5645458e-05 -0.0047543882 -0.009601858 0.0050055333 -0.008759851 -0.0043922937 -3.4676737e-05 -0.0002931771 -0.0076616737 0.009611855 0.0049810093 0.009233357 -0.00815657 0.0044915993 -0.00414005 0.0008240412 0.008495462 -0.004463624 0.004518114 -0.006788355 -0.003550796 0.009398703 -0.0015787029 0.00032020343 -0.004138339 -0.007682576 -0.0015092397 0.0024737923 -0.0008861657 0.005533201 -0.0027448721 0.0022611376 0.00545598 0.008347217 -0.001452693 -0.009206309 0.0043717404 0.0005708151 0.0074438644 -0.00081222976 -0.002638985 -0.008752973 -0.00085737655 0.0028248483 0.0053997166 0.007053209 -0.0057033957 0.0018564104 0.006091283 -0.004801854 -0.0031070334 0.006796883 0.0016310164 0.0001905973 0.003474959 0.00021541753 0.009619778 0.0050620586 -0.008913413 -0.0070432704 0.0009010707 0.0063943267
marron -0.008611969 0.003663357 0.005188146 0.0057449294 0.0074708955 -0.006162777 0.0011092542 0.0060482845 -0.002849591 -0.0061733904 -0.0004090132 -0.008370704 -0.0055939322 0.0071118693 0.0033538444 0.0072227446 0.0068123587 0.0075425855 -0.0037956238 -0.00057443563 0.0023450719 -0.004522117 0.00839454 -0.009866298 0.006768883 0.002915484 -0.0049305996 0.0044001364 -0.0017457003 0.0067156292 0.009972056 -0.004359891 -0.0006048153 -0.005697633 0.003840338 0.0027868068 0.0068847165 0.006096972 0.009533648 0.009268004 0.007903512 -0.0069940863 -0.0091515295 -0.00035581095 -0.0030924866 0.007903181 0.0059321937 -0.0015557049 0.0015080395 0.0017878689 0.007816346 -0.0095196925 -0.00021335232 0.003464418 -0.00095241173 0.00837511 0.009006023 0.006529293 -0.00072068284 0.0077047255 -0.008530159 0.0032008626 -0.0046296073 -0.0050846296 0.00358366 0.005383136 0.0077676717 -0.0057641207 0.0074241175 0.0066246996 -0.003708079 -0.0087386435 0.005440053 0.0065145046 -0.00078579574 -0.0067101065 -0.007074714 -0.002491986 0.005140644 -0.0036631846 -0.0093678 0.0038169802 0.004872171 -0.006426605 0.0012087432 -0.0020838182 2.999942e-05 -0.009889794 0.0026952266 -0.004751161 0.0010836021 -0.001573747 0.0021974419 -0.007883259 -0.0027136263 0.0026671938 0.005356329 -0.0023970457 -0.0095058875 0.004504738
zorro 0.00010386563 0.0030750413 -0.0068112975 -0.001368588 0.0076727313 0.0073528583 -0.003670167 0.0026425188 -0.008331391 0.0062040393 -0.0046394365 -0.00316757 0.00932212 0.0008775207 0.00749571 -0.0060767033 0.0051748366 0.009936256 -0.008470159 -0.0051525584 -0.0070701833 -0.0048632203 -0.0037748506 -0.00855211 0.0079581225 -0.004841088 0.008426262 0.0052706227 -0.0065616383 0.0039686873 0.0054745064 -0.007426742 -0.0074135456 -0.0024826494 -0.008638504 -0.0015828487 -0.00041089617 0.0032986035 0.0014354856 -0.0008830404 -0.005586993 0.0017260559 -0.0008962378 0.0067993496 0.003985533 0.004534287 0.0014269131 -0.0027097655 -0.0043648793 -0.0010333891 0.0014321218 -0.0026552328 -0.007076666 -0.007816765 -0.009138644 -0.0059358752 -0.0018562567 -0.004327843 -0.0064695477 -0.003717881 0.0042986968 -0.0037463717 0.008385078 0.0015429901 -0.0072480547 0.009451257 0.0076287366 0.005503274 -0.006858431 0.0058217775 0.0040137586 0.0051914314 0.0042629335 0.0019430087 -0.003173058 0.008358967 0.009628966 0.0037946205 -0.0028379268 3.033488e-06 0.0012159168 -0.008469064 -0.0082410425 -0.00022849072 0.0012392134 -0.0057536447 -0.004720614 -0.007348368 0.008340427 0.00011891875 -0.004512715 0.005703709 0.009180151 -0.0040997574 0.007969406 0.0053804335 0.0058879214 0.0005060956 0.008221572 -0.007025382
atrapa -0.008242678 0.009299355 -0.00019766092 -0.0019672764 0.0046036304 -0.004095316 0.0027431143 0.0069399667 0.006065426 -0.0075107943 0.00938235 0.0046718083 0.0039661205 -0.0062435055 0.00845998 -0.002150165 0.008825188 -0.0053620026 -0.008129419 0.006824559 0.0016711927 -0.002198509 0.009513601 0.009493855 -0.009774047 0.0025052286 0.0061566923 0.0038724565 0.0020227872 0.0004305017 0.00067363144 -0.0038206363 -0.0071402504 -0.0020888723 0.0039238976 0.008818683 0.00925915 -0.0059759365 -0.009402671 0.009764377 0.0034297847 0.005166117 0.006282345 -0.0028042626 0.0073227035 0.0028302716 0.0028710044 -0.00238037 -0.0031282497 -0.0023701417 0.0042764368 7.605791e-05 -0.009584279 -0.009665544 -0.006148194 -0.0001285696 0.001997416 0.0094319675 0.005584351 -0.0042906962 0.00027831673 0.0049643586 0.0076983096 -0.0011442233 0.0043234206 -0.0058143795 -0.00080419064 0.0081000505 -0.002360065 -0.009663455 0.0057792603 -0.0039298222 -0.0012228728 0.009980517 -0.0022563506 -0.0047570644 -0.0053293873 0.00698089 -0.005708872 0.002113663 -0.00525566 0.006120714 0.0043573068 0.002606355 -0.001491083 -0.0027460635 0.008992936 0.0052157748 -0.0021625196 -0.00947031 -0.007426052 -0.0010637414 -0.00079494715 -0.0025629092 0.0096827205 -0.00045852066 0.005873761 -0.0074475873 -0.0025060738 -0.0055498634
mundo -0.007139015 0.0012410306 -0.0071767163 -0.002244618 0.0037193035 0.005833124 0.0011981833 0.0021027315 -0.0041103913 0.0072253332 -0.0063070417 0.004647216 -0.008219973 0.002036468 -0.004977052 -0.004247688 -0.0031089843 0.0056552086 0.005798401 -0.004974649 0.0007733309 -0.008495778 0.0078098057 0.009257291 -0.0027423275 0.0008002233 0.0007466519 0.005477885 -0.008606079 0.00058445573 0.0068694223 0.0022315944 0.0011246764 -0.009322155 0.008482367 -0.0062641273 -0.0029923737 0.003493787 -0.0007726276 0.0014112913 0.0017819917 -0.0068288995 -0.009724812 0.009040585 0.0061980546 -0.0069129276 0.0034034825 0.00020606398 0.0047537456 -0.007119943 0.004026954 0.0043474343 0.009957369 -0.00447374 -0.0013892639 -0.0073173214 -0.009697829 -0.009080257 -0.0010227549 -0.00650329 0.004849728 -0.0061640264 0.0025191857 0.0007394409 -0.003392154 -0.0009792233 0.009979125 0.009145887 -0.0044618296 0.009083027 -0.005641763 0.005930922 -0.0030972182 0.0034317516 0.0030172265 0.006900461 -0.0023738837 0.008775037 0.007589428 -0.009547646 -0.008008209 -0.0076378966 0.0029232574 -0.0027947223 -0.0069295205 -0.008128264 0.00830918 0.0019904887 -0.009328017 -0.0047927164 0.0031367384 -0.004713206 0.005280843 -0.0042334413 0.002641796 -0.008045687 0.006209886 0.004818889 0.0007871926 0.0030134476
hola -0.0087274825 0.0021301615 -0.0008735442 -0.009319088 -0.009428143 -0.001410718 0.0044324086 0.003704071 -0.006498693 -0.0068730675 -0.004999412 -0.0022868442 -0.0072502876 -0.009603318 -0.0027436293 -0.008362841 -0.006038876 -0.005670929 -0.0023441375 -0.0017069972 -0.008956999 -0.0007351994 0.008152506 0.0076904297 -0.007206116 -0.0036668312 0.003118552 -0.0095707225 0.0014764392 0.0065244664 0.0057464195 -0.008763062 -0.004517144 -0.008140161 4.5956374e-05 0.009263634 0.0059733056 0.005067308 0.0050610625 -0.0032429171 0.009552184 -0.0073564244 -0.0072703874 -0.002265389 -0.00077856064 -0.0032161034 -0.0005925858 0.007488823 -0.0006975186 -0.0016249407 0.0027443992 -0.008359101 0.007855804 0.008536104 -0.009584087 0.0024462664 0.009904971 -0.0076658037 -0.0069669187 -0.007736517 0.008395923 -0.0006813359 0.009144409 -0.008158221 0.0037430846 0.0026350426 0.0007427132 0.002327676 -0.007469094 -0.0093583735 0.0023545765 0.006148455 0.007985689 0.0057358947 -0.00077733636 0.008306164 -0.009336314 0.0034061326 0.00026675343 0.0038572443 0.0073857834 -0.006725167 0.0055844807 -0.009522225 -0.00080445886 -0.008688737 -0.005098673 0.0092892265 -0.0018582619 0.0029144264 0.009071279 0.008938133 -0.008208435 -0.0030123137 0.009886606 0.005104431 -0.0015880871 -0.0086920215 0.0029615164 -0.0066758976
cola 0.008139777 -0.0044580484 -0.0010720198 0.0010090355 -0.00018406827 0.0011565795 0.006115005 -1.846948e-05 -0.0032593242 -0.0015083518 0.0058949934 0.0015107086 -0.0007135194 0.009338759 -0.0049156337 -0.00084412127 0.009189141 0.0067648673 0.0014917105 -0.008897645 0.0011417599 -0.002292394 0.009370978 0.0011970303 0.0014967502 0.0024059522 -0.0018304917 -0.0049935603 0.00022245152 -0.0020063506 0.0066085947 0.008938388 -0.00068356906 0.002972606 -0.006121756 0.0016978731 -0.006933056 -0.008695547 -0.005904582 -0.008960879 0.0072800326 -0.0057749283 0.008279161 -0.007238648 0.003431087 0.009683027 -0.007790504 -0.009955432 -0.0043325154 -0.0026851362 -0.00027269908 -0.008841228 -0.008626243 0.002790189 -0.008223631 -0.009076493 -0.002347055 -0.00863923 -0.0070673167 -0.008406286 -0.00029407413 -0.004572049 0.0066385427 0.0015334769 -0.0033501934 0.0061259936 -0.0060112476 -0.0046490226 -0.0072194925 -0.0043347934 -0.001804887 0.006498401 -0.0027649205 0.0049234293 0.0069033406 -0.0074581266 0.0045810696 0.0061322907 -0.0029579625 0.0066250497 0.0061268476 -0.006456195 -0.0067808046 0.0025413209 -0.0016226204 -0.0060760067 0.009502086 -0.0051377113 -0.0065450147 -0.000121071185 -0.0027066006 0.0004490879 -0.0035327182 -0.00042221238 -0.0007013589 0.00082889106 0.008206125 -0.0057414565 -0.001650452 0.005566122
suelta 0.008171392 -0.004442727 0.0089860605 0.008257338 -0.0044324836 0.00030766186 0.004273896 -0.0039258744 -0.0055682943 -0.006511757 -0.00067452405 -0.00029869116 0.0044712843 -0.002475268 -0.00016733208 0.0024590963 0.0048729437 -2.4597812e-05 -0.0063489126 -0.009268658 2.2091295e-05 0.0066623543 0.0014638108 -0.008977167 -0.007937115 0.0065517398 -0.0037820828 0.0062627573 -0.006689273 0.008486996 -0.006516856 0.0032836571 -0.0010620349 -0.006793436 -0.0032945592 -0.0011633679 -0.0054729087 -0.0012090974 -0.007565448 0.0026483103 0.009070038 -0.0023766088 -0.0009790607 0.0035204932 0.008671688 -0.0059227757 -0.006889404 -0.0029350172 0.009150058 0.0008668474 -0.008681943 -0.0014487815 0.009480319 -0.0075588357 -0.00536586 0.009318226 -0.008978986 0.0038257563 0.0006620649 0.0066631236 0.008319567 -0.0028542911 -0.003989579 0.008902933 0.0020861113 0.006258192 -0.0094445385 0.009599362 -0.0013530053 -0.00605059 0.002997156 -0.0004537146 0.004712198 -0.0022836637 -0.0041426173 0.0022853354 0.008364875 -0.0049963854 0.0026683337 -0.007995818 -0.0067770104 -0.00047261146 -0.008776806 0.0027907246 0.0016001725 -0.0023241271 0.0050025634 0.009748839 0.008464805 -0.00188086 0.0020566038 -0.0040020444 -0.0082388995 0.0062782215 -0.0019443183 -0.0006627573 -0.0017693025 -0.0045373933 0.004069359 -0.004277193
perezoso -0.0095785465 0.008943115 0.0041650687 0.009234735 0.0066435025 0.0029247368 0.00980402 -0.004424641 -0.006803311 0.0042273807 0.003729 -0.005664611 0.00970476 -0.0035583067 0.009549406 0.0008347261 -0.0063384566 -0.001977117 -0.0073770545 -0.002979523 0.0010416972 0.009482687 0.009355848 -0.0065958775 0.003475151 0.0022755705 -0.0024893521 -0.009229172 0.0010271263 -0.008165706 0.006320189 -0.0058000805 0.005535439 0.009833723 -0.00016000033 0.0045284927 -0.0018094003 0.007360761 0.003940097 -0.009010324 -0.002398504 0.003628769 -9.9568366e-05 -0.0012012708 -0.0010554385 -0.0016716016 0.00060495257 0.0041650953 -0.0042527914 -0.0038336217 -5.2816868e-05 0.00026935578 -0.00016880632 -0.0047855065 0.0043134023 -0.0021719194 0.0021035396 0.000666523 0.005969677 -0.006842381 -0.00681571 -0.0044762576 0.009435829 -0.0015918827 -0.009429242 -0.0005450416 -0.004448923 0.0060000787 -0.009583686 0.002859001 -0.009252832 0.0012498009 0.005999198 0.0073973476 -0.0076214634 -0.0060530235 -0.006838441 -0.00791834 -0.0094990805 -0.002125497 -0.0008359325 -0.0072562015 0.0067870365 0.0011196196 0.0058288667 0.0014728665 0.0007893658 -0.0073681297 -0.002176658 0.0043210792 -0.0050853146 0.0011307895 0.002883364 -0.001536361 0.009932295 0.008349635 0.0024156666 0.0071182456 0.0058914376 -0.005580617
rapido -0.0051562428 -0.0066683376 -0.007776835 0.008310728 -0.001982342 -0.0068549635 -0.004154389 0.0051441262 -0.0028691364 -0.0037496602 0.0016214252 -0.0027762938 -0.0015843606 0.0010744918 -0.0029779447 0.008519283 0.003910935 -0.009958863 0.0062595997 -0.006754254 0.0007694328 0.0044042347 -0.005103375 -0.0021106696 0.008095479 -0.0042437925 -0.007636261 0.009257913 -0.002155497 -0.0047194324 0.0085708 0.004283339 0.0043248367 0.009284513 -0.00845308 0.00525532 0.0020393515 0.00418828 0.0016979002 0.004464134 0.0044862903 0.006104522 -0.0032020975 -0.004575728 -0.00042651652 0.0025337338 -0.003263167 0.006057718 0.0041541304 0.0077645923 0.0025692724 0.008116683 -0.0013872099 0.008077928 0.003717016 -0.008047325 -0.0039336146 -0.0024718784 0.004893044 -0.000872159 -0.0028309084 0.007833707 0.0093229 -0.0016149282 -0.0051592495 -0.0047017587 -0.004846051 -0.009602826 0.0013720202 -0.0042249155 0.0025267089 0.0056144833 -0.0040659057 -0.009596582 0.0015466976 -0.0067001223 0.0024951743 -0.003780632 0.0070784213 0.00064022065 0.0035609389 -0.0027391338 -0.0017105473 0.007652793 0.0014076781 -0.0058504487 -0.007834497 0.0012326873 0.006454631 0.0055563496 -0.00897705 0.008592164 0.004046978 0.007469605 0.0097463345 -0.00728958 -0.009039963 0.0058360007 0.009391213 0.0035069252
quiere 0.007088797 -0.00156793 0.007947499 -0.009488659 -0.008029499 -0.006640371 -0.0040034545 0.004989216 -0.0038135587 -0.008319905 0.008411777 -0.003747002 0.008608696 -0.0048957514 0.003918594 0.004922017 0.0023926091 -0.0028188038 0.0028491246 -0.008256236 -0.0027655398 -0.0025911583 0.007249006 -0.003463403 -0.006599703 0.004340427 -0.00047448516 -0.0035975564 0.006882472 0.0038723124 -0.0039002013 0.0007718885 0.009143502 0.007754656 0.006361872 0.0046673026 0.0023844899 -0.0018416261 -0.006371293 -0.0003018105 -0.0015653884 -0.0005722857 -0.006262871 0.0074340473 -0.006591493 -0.0072392775 -0.0027571463 -0.0015154004 -0.0076357173 0.000698241 -0.0053261113 -0.0012755442 -0.0073651113 0.0019605684 0.0032731986 -2.3138524e-05 -0.005448358 -0.0017260861 0.007084917 0.0037362587 -0.008881049 -0.0034135508 0.0023541022 0.0021380198 -0.009464008 0.004571166 -0.008656997 -0.007387068 0.003483112 -0.0034709584 0.003564471 0.008894091 -0.0035743224 0.009320425 0.0017110384 0.009847774 0.005705043 -0.009149483 -0.0033277308 0.006530175 0.0056027793 0.008705515 0.0069261026 0.008038888 -0.009823008 0.0042988253 -0.0050300765 0.003512386 0.006056688 0.0043921317 0.0075123594 0.0014977157 -0.0012649416 0.0057684006 -0.0056395675 3.8591625e-05 0.009456587 -0.00548125 0.0038142789 -0.008113021
persigue 0.009771631 0.008164479 0.0012828005 0.005098971 0.0014085867 -0.0064541954 -0.0014278406 0.006448951 -0.0046187346 -0.003993982 0.0049232314 0.0027121445 -0.0018460237 -0.0028779584 0.006011603 -0.005716941 -0.003235825 -0.0064872117 -0.0042367107 -0.008582699 -0.004470974 -0.00851042 0.0014029776 -0.008621359 -0.00991798 -0.008200744 -0.006772651 0.006683193 0.0037825196 0.00035887485 -0.002959275 -0.0074291294 0.0005320791 0.00049814576 0.00019430272 0.00085206906 0.000785553 -6.7678055e-05 -0.008007998 -0.005868799 -0.008381528 -0.0013120405 0.0018196196 0.007419037 -0.0019615982 -0.0023266552 0.009487005 7.901808e-05 -0.0024030788 0.008605178 0.0026858419 -0.0053445566 0.0065904097 0.004507432 -0.0070562125 -0.00032097814 0.0008323807 0.005748797 -0.0017173275 -0.0028049783 0.001750164 0.0008462333 0.001192421 -0.002632391 -0.005986028 0.007325045 0.0075867097 0.00829893 -0.008599528 0.0026361423 -0.0035588357 0.009620295 0.0029059139 0.0046406835 0.0023835911 0.0066099092 -0.00574104 0.007892933 -0.0024105432 -0.0045638513 -0.002063254 0.009733417 -0.0068591703 -0.0021915317 0.0070015783 -5.66463e-05 -0.0062951637 -0.0063922177 0.008943591 0.006429154 0.004773646 -0.0032627168 -0.00926828 0.00378756 0.007160917 -0.0056325328 -0.007865049 -0.002972981 -0.0049300436 -0.0023172216
corre -0.0019442347 -0.005267866 0.0094496785 -0.009297017 0.0045037945 0.0054034693 -0.0014087484 0.00900715 0.009884864 -0.005476973 -0.0060215504 -0.0067480044 -0.007895076 -0.0030483888 -0.005593785 -0.008343533 0.00078360894 0.0029946698 0.0064136125 -0.002629879 -0.0044532213 0.0012506129 0.00039199542 0.008114891 0.00018173174 0.0072331387 -0.008265962 0.008435422 -0.0018900792 0.008703466 -0.007617815 0.0017961897 0.00105654 4.418004e-05 -0.005102895 -0.009247915 -0.007264172 -0.007950515 0.0019137488 0.0004804631 -0.0018111882 0.0071196076 -0.0024773409 -0.0013465002 -0.008899949 -0.009926702 0.008949498 -0.0057539665 -0.006371019 0.0052000736 0.0066693937 -0.006832285 0.0009622061 -0.00600953 0.001647223 -0.0042861844 -0.0034413435 0.0021877275 0.008662522 0.0067308317 -0.009676809 -0.005622004 0.007878676 0.0019902766 -0.0042550103 0.000599702 0.009520479 -0.0011015162 -0.009423689 0.0016081636 0.0062326645 0.0062810085 0.004093146 -0.005650544 -0.00037187093 -5.5338907e-05 0.0045720492 -0.008043426 -0.00801727 0.00026259205 -0.008611026 0.0058212974 -0.00041814896 0.009971107 -0.005343651 -0.00048616028 0.0077573094 -0.0040667416 -0.0050141294 0.0015893469 0.0026515278 -0.0025660784 0.0064464365 -0.0076596616 0.0033928568 0.00048990623 0.00873185 0.005982233 0.006815177 0.007822261
agil -0.009496749 0.009560314 -0.0077703022 -0.002643772 -0.004905797 -0.0049671126 -0.008020041 -0.007783107 -0.0045557506 -0.0012774741 -0.005099943 0.0061403024 -0.0095179 -0.005301193 0.009435124 0.0069922474 0.00768225 0.004239601 0.0005071109 -0.0059866766 0.0060199364 0.002633526 0.0077060866 0.00639283 0.007944147 0.008659711 -0.009897955 -0.0067576966 0.0013371891 0.006440729 0.007378736 0.005521587 0.007661341 -0.0051252088 0.006581663 -0.0041071814 -0.009058626 0.009137944 0.0013292156 -0.0027631782 -0.0024722808 -0.0042248997 0.00481562 0.0043964353 -0.0026516002 -0.007335902 -0.0035696896 -0.0003424416 0.006094352 -0.002838573 -0.00012033292 0.0008734484 -0.007100091 0.0020667706 -0.0014373187 0.0027989447 0.0048419456 -0.0013556305 -0.002784127 0.007735693 0.0050446917 0.006711528 0.00451848 0.008667887 0.0074739805 -0.0010775165 0.008745188 0.0045988685 0.0054378635 -0.0013878559 -0.00204278 -0.0044222167 -0.008515925 0.0030413363 0.008886903 0.0089149475 -0.0019405732 0.0060890457 0.0037790895 -0.004293356 0.0020446335 -0.005440979 0.008205707 0.0054336335 0.0031838685 0.00409895 0.0086628515 0.007268461 -0.00083633163 -0.0070737945 0.008379476 0.0072335512 0.0017284448 -0.0013485817 -0.0058911582 -0.00453242 0.008653346 -0.003138909 -0.0063411216 0.009873868
movio 0.0076966463 0.009120642 0.0011355019 -0.008325079 0.008425016 -0.0036962307 0.005742173 0.0043915794 0.009689945 -0.009293498 0.009208405 -0.009281528 -0.006907712 -0.009102195 -0.00554711 0.007368896 0.009164478 -0.0033253515 0.0037230505 -0.0036252034 0.007881471 0.005866876 2.0861626e-07 -0.0036286747 -0.007224306 0.004768616 0.0014529788 -0.0026131857 0.007837807 -0.0040496145 -0.009148986 -0.0022554707 0.00012514711 -0.006639255 -0.005486616 -0.008499777 0.009229873 0.007424028 -0.00029524326 0.0073676636 0.007950788 -0.00078357337 0.006612091 0.0037675237 0.0050768424 0.007252991 -0.0047393893 -0.002185533 0.0008731234 0.004236206 0.0033043313 0.0050958274 0.0045864857 -0.008438509 -0.0031838394 -0.0072367596 0.009681422 0.0050065992 0.00017084122 0.004112978 -0.007656131 -0.006294651 0.0030763936 0.0065346383 0.0039498745 0.006018022 -0.0019861318 -0.0033451295 0.00020717025 -0.0031943608 -0.0055169044 -0.0077885604 0.006535543 -0.001090337 -0.0018908798 -0.007804775 0.009337573 0.00086814165 0.0017696369 0.002491666 -0.007385993 0.0016388226 0.002976563 -0.00856703 0.004955802 0.0024334085 0.0074979127 0.0050442982 -0.0030317164 -0.007162937 0.0070962133 0.0019015349 0.005199236 0.006381109 0.0019122792 -0.0061276113 -6.2966346e-06 0.008268298 -0.006098548 0.009438281
salta -0.0071909428 0.0042328904 0.0021633946 0.0074407146 -0.004889265 -0.0045643463 -0.006098174 0.0032993674 -0.004499463 0.008522885 -0.004288827 -0.00910542 -0.0048163556 0.0064164903 -0.006371324 -0.0052615367 -0.007304411 0.0060222615 0.003357594 0.0028483903 -0.0031385506 0.006030891 -0.0061527453 -0.0019801008 -0.005983082 -0.0009956801 -0.002020986 0.008485946 7.800102e-05 -0.008575326 -0.0054290984 -0.006875986 0.0026923812 0.009456648 -0.005815996 0.008265026 0.008532052 -0.007062639 -0.008883213 0.009469184 0.008374364 -0.0046908916 -0.006726041 0.007842137 0.0037633455 0.008095504 -0.007571546 -0.009525085 0.001577406 -0.009805768 -0.0048858845 -0.0034601032 0.009620923 0.008623569 -0.0028356076 0.005826873 0.008237095 -0.002262981 0.009528542 0.007160215 0.0020415008 -0.0038487636 -0.00508175 -0.0030516528 0.0078878645 -0.0061904346 -0.0029150224 0.009191022 0.0034566557 0.006072612 -0.008032816 -0.0007515049 0.0055224476 -0.0047144685 0.0074784933 0.009319591 -0.00040936828 -0.002063601 -0.0005933583 -0.0057858895 -0.008386281 -0.0015068734 -0.0025571836 0.004382434 -0.0068675173 0.0054136957 -0.0067450856 -0.00782029 0.008471712 0.008918614 -0.0034812402 0.0034914147 -0.005795735 -0.008750086 -0.0055155717 0.006748729 0.0064177597 0.009438073 0.007055285 0.0067549525
